digraph Tree {
node [shape=box] ;
0 [label="X[8] <= 0.346\ngini = 0.487\nsamples = 454\nvalue = [263, 191]"] ;
1 [label="X[2] <= 0.912\ngini = 0.336\nsamples = 299\nvalue = [235, 64]"] ;
0 -> 1 [labeldistance=2.5, labelangle=45, headlabel="True"] ;
2 [label="X[5] <= 0.282\ngini = 0.197\nsamples = 217\nvalue = [193, 24]"] ;
1 -> 2 ;
3 [label="X[0] <= 0.797\ngini = 0.162\nsamples = 203\nvalue = [185, 18]"] ;
2 -> 3 ;
4 [label="X[9] <= 0.564\ngini = 0.147\nsamples = 201\nvalue = [185, 16]"] ;
3 -> 4 ;
5 [label="X[2] <= 0.27\ngini = 0.116\nsamples = 195\nvalue = [183, 12]"] ;
4 -> 5 ;
6 [label="X[1] <= 0.1\ngini = 0.42\nsamples = 10\nvalue = [7, 3]"] ;
5 -> 6 ;
7 [label="gini = 0.0\nsamples = 6\nvalue = [6, 0]"] ;
6 -> 7 ;
8 [label="X[6] <= 0.273\ngini = 0.375\nsamples = 4\nvalue = [1, 3]"] ;
6 -> 8 ;
9 [label="X[3] <= 0.366\ngini = 0.5\nsamples = 2\nvalue = [1, 1]"] ;
8 -> 9 ;
10 [label="gini = 0.0\nsamples = 1\nvalue = [1, 0]"] ;
9 -> 10 ;
11 [label="gini = 0.0\nsamples = 1\nvalue = [0, 1]"] ;
9 -> 11 ;
12 [label="gini = 0.0\nsamples = 2\nvalue = [0, 2]"] ;
8 -> 12 ;
13 [label="X[4] <= 0.746\ngini = 0.093\nsamples = 185\nvalue = [176, 9]"] ;
5 -> 13 ;
14 [label="X[4] <= 0.112\ngini = 0.083\nsamples = 184\nvalue = [176, 8]"] ;
13 -> 14 ;
15 [label="X[2] <= 0.452\ngini = 0.5\nsamples = 2\nvalue = [1, 1]"] ;
14 -> 15 ;
16 [label="gini = 0.0\nsamples = 1\nvalue = [0, 1]"] ;
15 -> 16 ;
17 [label="gini = 0.0\nsamples = 1\nvalue = [1, 0]"] ;
15 -> 17 ;
18 [label="X[9] <= 0.403\ngini = 0.074\nsamples = 182\nvalue = [175, 7]"] ;
14 -> 18 ;
19 [label="X[1] <= 0.305\ngini = 0.059\nsamples = 165\nvalue = [160, 5]"] ;
18 -> 19 ;
20 [label="gini = 0.0\nsamples = 57\nvalue = [57, 0]"] ;
19 -> 20 ;
21 [label="X[4] <= 0.35\ngini = 0.088\nsamples = 108\nvalue = [103, 5]"] ;
19 -> 21 ;
22 [label="gini = 0.0\nsamples = 36\nvalue = [36, 0]"] ;
21 -> 22 ;
23 [label="X[3] <= 0.445\ngini = 0.129\nsamples = 72\nvalue = [67, 5]"] ;
21 -> 23 ;
24 [label="X[7] <= 0.674\ngini = 0.19\nsamples = 47\nvalue = [42, 5]"] ;
23 -> 24 ;
25 [label="X[3] <= 0.253\ngini = 0.332\nsamples = 19\nvalue = [15, 4]"] ;
24 -> 25 ;
26 [label="X[2] <= 0.396\ngini = 0.5\nsamples = 4\nvalue = [2, 2]"] ;
25 -> 26 ;
27 [label="gini = 0.0\nsamples = 2\nvalue = [0, 2]"] ;
26 -> 27 ;
28 [label="gini = 0.0\nsamples = 2\nvalue = [2, 0]"] ;
26 -> 28 ;
29 [label="X[2] <= 0.465\ngini = 0.231\nsamples = 15\nvalue = [13, 2]"] ;
25 -> 29 ;
30 [label="gini = 0.0\nsamples = 9\nvalue = [9, 0]"] ;
29 -> 30 ;
31 [label="X[0] <= 0.628\ngini = 0.444\nsamples = 6\nvalue = [4, 2]"] ;
29 -> 31 ;
32 [label="gini = 0.0\nsamples = 3\nvalue = [3, 0]"] ;
31 -> 32 ;
33 [label="X[4] <= 0.398\ngini = 0.444\nsamples = 3\nvalue = [1, 2]"] ;
31 -> 33 ;
34 [label="gini = 0.0\nsamples = 2\nvalue = [0, 2]"] ;
33 -> 34 ;
35 [label="gini = 0.0\nsamples = 1\nvalue = [1, 0]"] ;
33 -> 35 ;
36 [label="X[7] <= 0.857\ngini = 0.069\nsamples = 28\nvalue = [27, 1]"] ;
24 -> 36 ;
37 [label="gini = 0.0\nsamples = 20\nvalue = [20, 0]"] ;
36 -> 37 ;
38 [label="X[0] <= 0.36\ngini = 0.219\nsamples = 8\nvalue = [7, 1]"] ;
36 -> 38 ;
39 [label="gini = 0.0\nsamples = 6\nvalue = [6, 0]"] ;
38 -> 39 ;
40 [label="X[4] <= 0.432\ngini = 0.5\nsamples = 2\nvalue = [1, 1]"] ;
38 -> 40 ;
41 [label="gini = 0.0\nsamples = 1\nvalue = [1, 0]"] ;
40 -> 41 ;
42 [label="gini = 0.0\nsamples = 1\nvalue = [0, 1]"] ;
40 -> 42 ;
43 [label="gini = 0.0\nsamples = 25\nvalue = [25, 0]"] ;
23 -> 43 ;
44 [label="X[1] <= 0.769\ngini = 0.208\nsamples = 17\nvalue = [15, 2]"] ;
18 -> 44 ;
45 [label="X[4] <= 0.306\ngini = 0.32\nsamples = 10\nvalue = [8, 2]"] ;
44 -> 45 ;
46 [label="gini = 0.0\nsamples = 1\nvalue = [0, 1]"] ;
45 -> 46 ;
47 [label="X[4] <= 0.426\ngini = 0.198\nsamples = 9\nvalue = [8, 1]"] ;
45 -> 47 ;
48 [label="gini = 0.0\nsamples = 6\nvalue = [6, 0]"] ;
47 -> 48 ;
49 [label="X[4] <= 0.463\ngini = 0.444\nsamples = 3\nvalue = [2, 1]"] ;
47 -> 49 ;
50 [label="gini = 0.0\nsamples = 2\nvalue = [2, 0]"] ;
49 -> 50 ;
51 [label="gini = 0.0\nsamples = 1\nvalue = [0, 1]"] ;
49 -> 51 ;
52 [label="gini = 0.0\nsamples = 7\nvalue = [7, 0]"] ;
44 -> 52 ;
53 [label="gini = 0.0\nsamples = 1\nvalue = [0, 1]"] ;
13 -> 53 ;
54 [label="X[7] <= 0.685\ngini = 0.444\nsamples = 6\nvalue = [2, 4]"] ;
4 -> 54 ;
55 [label="gini = 0.0\nsamples = 2\nvalue = [2, 0]"] ;
54 -> 55 ;
56 [label="gini = 0.0\nsamples = 4\nvalue = [0, 4]"] ;
54 -> 56 ;
57 [label="gini = 0.0\nsamples = 2\nvalue = [0, 2]"] ;
3 -> 57 ;
58 [label="X[9] <= 0.35\ngini = 0.49\nsamples = 14\nvalue = [8, 6]"] ;
2 -> 58 ;
59 [label="X[2] <= 0.601\ngini = 0.444\nsamples = 12\nvalue = [8, 4]"] ;
58 -> 59 ;
60 [label="gini = 0.0\nsamples = 6\nvalue = [6, 0]"] ;
59 -> 60 ;
61 [label="X[0] <= 0.405\ngini = 0.444\nsamples = 6\nvalue = [2, 4]"] ;
59 -> 61 ;
62 [label="gini = 0.0\nsamples = 2\nvalue = [2, 0]"] ;
61 -> 62 ;
63 [label="gini = 0.0\nsamples = 4\nvalue = [0, 4]"] ;
61 -> 63 ;
64 [label="gini = 0.0\nsamples = 2\nvalue = [0, 2]"] ;
58 -> 64 ;
65 [label="X[9] <= 0.499\ngini = 0.5\nsamples = 82\nvalue = [42, 40]"] ;
1 -> 65 ;
66 [label="X[1] <= 0.128\ngini = 0.488\nsamples = 71\nvalue = [41, 30]"] ;
65 -> 66 ;
67 [label="X[4] <= 0.085\ngini = 0.165\nsamples = 11\nvalue = [10, 1]"] ;
66 -> 67 ;
68 [label="gini = 0.0\nsamples = 1\nvalue = [0, 1]"] ;
67 -> 68 ;
69 [label="gini = 0.0\nsamples = 10\nvalue = [10, 0]"] ;
67 -> 69 ;
70 [label="X[7] <= 0.506\ngini = 0.499\nsamples = 60\nvalue = [31, 29]"] ;
66 -> 70 ;
71 [label="X[0] <= 0.662\ngini = 0.375\nsamples = 16\nvalue = [4, 12]"] ;
70 -> 71 ;
72 [label="X[3] <= 0.787\ngini = 0.444\nsamples = 12\nvalue = [4, 8]"] ;
71 -> 72 ;
73 [label="X[5] <= 0.809\ngini = 0.397\nsamples = 11\nvalue = [3, 8]"] ;
72 -> 73 ;
74 [label="X[0] <= 0.458\ngini = 0.469\nsamples = 8\nvalue = [3, 5]"] ;
73 -> 74 ;
75 [label="gini = 0.0\nsamples = 3\nvalue = [0, 3]"] ;
74 -> 75 ;
76 [label="X[4] <= 0.21\ngini = 0.48\nsamples = 5\nvalue = [3, 2]"] ;
74 -> 76 ;
77 [label="gini = 0.0\nsamples = 2\nvalue = [0, 2]"] ;
76 -> 77 ;
78 [label="gini = 0.0\nsamples = 3\nvalue = [3, 0]"] ;
76 -> 78 ;
79 [label="gini = 0.0\nsamples = 3\nvalue = [0, 3]"] ;
73 -> 79 ;
80 [label="gini = 0.0\nsamples = 1\nvalue = [1, 0]"] ;
72 -> 80 ;
81 [label="gini = 0.0\nsamples = 4\nvalue = [0, 4]"] ;
71 -> 81 ;
82 [label="X[4] <= 0.825\ngini = 0.474\nsamples = 44\nvalue = [27, 17]"] ;
70 -> 82 ;
83 [label="X[5] <= 0.348\ngini = 0.459\nsamples = 42\nvalue = [27, 15]"] ;
82 -> 83 ;
84 [label="X[7] <= 0.765\ngini = 0.45\nsamples = 41\nvalue = [27, 14]"] ;
83 -> 84 ;
85 [label="X[3] <= 0.37\ngini = 0.375\nsamples = 28\nvalue = [21, 7]"] ;
84 -> 85 ;
86 [label="X[3] <= 0.327\ngini = 0.18\nsamples = 10\nvalue = [9, 1]"] ;
85 -> 86 ;
87 [label="gini = 0.0\nsamples = 6\nvalue = [6, 0]"] ;
86 -> 87 ;
88 [label="X[7] <= 0.684\ngini = 0.375\nsamples = 4\nvalue = [3, 1]"] ;
86 -> 88 ;
89 [label="gini = 0.0\nsamples = 3\nvalue = [3, 0]"] ;
88 -> 89 ;
90 [label="gini = 0.0\nsamples = 1\nvalue = [0, 1]"] ;
88 -> 90 ;
91 [label="X[0] <= 0.275\ngini = 0.444\nsamples = 18\nvalue = [12, 6]"] ;
85 -> 91 ;
92 [label="gini = 0.0\nsamples = 3\nvalue = [3, 0]"] ;
91 -> 92 ;
93 [label="X[9] <= 0.349\ngini = 0.48\nsamples = 15\nvalue = [9, 6]"] ;
91 -> 93 ;
94 [label="X[0] <= 0.554\ngini = 0.497\nsamples = 13\nvalue = [7, 6]"] ;
93 -> 94 ;
95 [label="X[4] <= 0.442\ngini = 0.463\nsamples = 11\nvalue = [7, 4]"] ;
94 -> 95 ;
96 [label="X[7] <= 0.676\ngini = 0.346\nsamples = 9\nvalue = [7, 2]"] ;
95 -> 96 ;
97 [label="gini = 0.0\nsamples = 4\nvalue = [4, 0]"] ;
96 -> 97 ;
98 [label="X[0] <= 0.524\ngini = 0.48\nsamples = 5\nvalue = [3, 2]"] ;
96 -> 98 ;
99 [label="gini = 0.0\nsamples = 2\nvalue = [0, 2]"] ;
98 -> 99 ;
100 [label="gini = 0.0\nsamples = 3\nvalue = [3, 0]"] ;
98 -> 100 ;
101 [label="gini = 0.0\nsamples = 2\nvalue = [0, 2]"] ;
95 -> 101 ;
102 [label="gini = 0.0\nsamples = 2\nvalue = [0, 2]"] ;
94 -> 102 ;
103 [label="gini = 0.0\nsamples = 2\nvalue = [2, 0]"] ;
93 -> 103 ;
104 [label="X[3] <= 0.559\ngini = 0.497\nsamples = 13\nvalue = [6, 7]"] ;
84 -> 104 ;
105 [label="X[0] <= 0.2\ngini = 0.463\nsamples = 11\nvalue = [4, 7]"] ;
104 -> 105 ;
106 [label="gini = 0.0\nsamples = 2\nvalue = [2, 0]"] ;
105 -> 106 ;
107 [label="X[3] <= 0.399\ngini = 0.346\nsamples = 9\nvalue = [2, 7]"] ;
105 -> 107 ;
108 [label="gini = 0.0\nsamples = 5\nvalue = [0, 5]"] ;
107 -> 108 ;
109 [label="X[3] <= 0.432\ngini = 0.5\nsamples = 4\nvalue = [2, 2]"] ;
107 -> 109 ;
110 [label="gini = 0.0\nsamples = 2\nvalue = [0, 2]"] ;
109 -> 110 ;
111 [label="gini = 0.0\nsamples = 2\nvalue = [2, 0]"] ;
109 -> 111 ;
112 [label="gini = 0.0\nsamples = 2\nvalue = [2, 0]"] ;
104 -> 112 ;
113 [label="gini = 0.0\nsamples = 1\nvalue = [0, 1]"] ;
83 -> 113 ;
114 [label="gini = 0.0\nsamples = 2\nvalue = [0, 2]"] ;
82 -> 114 ;
115 [label="X[7] <= 0.685\ngini = 0.165\nsamples = 11\nvalue = [1, 10]"] ;
65 -> 115 ;
116 [label="gini = 0.0\nsamples = 10\nvalue = [0, 10]"] ;
115 -> 116 ;
117 [label="gini = 0.0\nsamples = 1\nvalue = [1, 0]"] ;
115 -> 117 ;
118 [label="X[1] <= 0.913\ngini = 0.296\nsamples = 155\nvalue = [28, 127]"] ;
0 -> 118 [labeldistance=2.5, labelangle=-45, headlabel="False"] ;
119 [label="X[0] <= 0.47\ngini = 0.486\nsamples = 24\nvalue = [10, 14]"] ;
118 -> 119 ;
120 [label="X[3] <= 0.497\ngini = 0.278\nsamples = 6\nvalue = [1, 5]"] ;
119 -> 120 ;
121 [label="gini = 0.0\nsamples = 5\nvalue = [0, 5]"] ;
120 -> 121 ;
122 [label="gini = 0.0\nsamples = 1\nvalue = [1, 0]"] ;
120 -> 122 ;
123 [label="X[0] <= 0.65\ngini = 0.5\nsamples = 18\nvalue = [9, 9]"] ;
119 -> 123 ;
124 [label="X[9] <= 0.373\ngini = 0.444\nsamples = 12\nvalue = [8, 4]"] ;
123 -> 124 ;
125 [label="gini = 0.0\nsamples = 2\nvalue = [0, 2]"] ;
124 -> 125 ;
126 [label="X[4] <= 0.452\ngini = 0.32\nsamples = 10\nvalue = [8, 2]"] ;
124 -> 126 ;
127 [label="gini = 0.0\nsamples = 5\nvalue = [5, 0]"] ;
126 -> 127 ;
128 [label="X[7] <= 0.606\ngini = 0.48\nsamples = 5\nvalue = [3, 2]"] ;
126 -> 128 ;
129 [label="gini = 0.0\nsamples = 3\nvalue = [3, 0]"] ;
128 -> 129 ;
130 [label="gini = 0.0\nsamples = 2\nvalue = [0, 2]"] ;
128 -> 130 ;
131 [label="X[3] <= 0.512\ngini = 0.278\nsamples = 6\nvalue = [1, 5]"] ;
123 -> 131 ;
132 [label="X[5] <= 0.33\ngini = 0.444\nsamples = 3\nvalue = [1, 2]"] ;
131 -> 132 ;
133 [label="gini = 0.0\nsamples = 1\nvalue = [1, 0]"] ;
132 -> 133 ;
134 [label="gini = 0.0\nsamples = 2\nvalue = [0, 2]"] ;
132 -> 134 ;
135 [label="gini = 0.0\nsamples = 3\nvalue = [0, 3]"] ;
131 -> 135 ;
136 [label="X[2] <= 0.722\ngini = 0.237\nsamples = 131\nvalue = [18, 113]"] ;
118 -> 136 ;
137 [label="X[6] <= 0.002\ngini = 0.499\nsamples = 21\nvalue = [10, 11]"] ;
136 -> 137 ;
138 [label="X[3] <= 0.57\ngini = 0.494\nsamples = 18\nvalue = [10, 8]"] ;
137 -> 138 ;
139 [label="X[2] <= 0.66\ngini = 0.408\nsamples = 14\nvalue = [10, 4]"] ;
138 -> 139 ;
140 [label="gini = 0.0\nsamples = 5\nvalue = [5, 0]"] ;
139 -> 140 ;
141 [label="X[4] <= 0.45\ngini = 0.494\nsamples = 9\nvalue = [5, 4]"] ;
139 -> 141 ;
142 [label="X[0] <= 0.533\ngini = 0.444\nsamples = 6\nvalue = [2, 4]"] ;
141 -> 142 ;
143 [label="X[9] <= 0.502\ngini = 0.5\nsamples = 4\nvalue = [2, 2]"] ;
142 -> 143 ;
144 [label="gini = 0.0\nsamples = 2\nvalue = [0, 2]"] ;
143 -> 144 ;
145 [label="gini = 0.0\nsamples = 2\nvalue = [2, 0]"] ;
143 -> 145 ;
146 [label="gini = 0.0\nsamples = 2\nvalue = [0, 2]"] ;
142 -> 146 ;
147 [label="gini = 0.0\nsamples = 3\nvalue = [3, 0]"] ;
141 -> 147 ;
148 [label="gini = 0.0\nsamples = 4\nvalue = [0, 4]"] ;
138 -> 148 ;
149 [label="gini = 0.0\nsamples = 3\nvalue = [0, 3]"] ;
137 -> 149 ;
150 [label="X[9] <= 0.404\ngini = 0.135\nsamples = 110\nvalue = [8, 102]"] ;
136 -> 150 ;
151 [label="X[4] <= 0.033\ngini = 0.346\nsamples = 18\nvalue = [4, 14]"] ;
150 -> 151 ;
152 [label="gini = 0.0\nsamples = 7\nvalue = [0, 7]"] ;
151 -> 152 ;
153 [label="X[4] <= 0.431\ngini = 0.463\nsamples = 11\nvalue = [4, 7]"] ;
151 -> 153 ;
154 [label="X[3] <= 0.575\ngini = 0.375\nsamples = 8\nvalue = [2, 6]"] ;
153 -> 154 ;
155 [label="gini = 0.0\nsamples = 6\nvalue = [0, 6]"] ;
154 -> 155 ;
156 [label="gini = 0.0\nsamples = 2\nvalue = [2, 0]"] ;
154 -> 156 ;
157 [label="X[6] <= 1.788\ngini = 0.444\nsamples = 3\nvalue = [2, 1]"] ;
153 -> 157 ;
158 [label="gini = 0.0\nsamples = 2\nvalue = [2, 0]"] ;
157 -> 158 ;
159 [label="gini = 0.0\nsamples = 1\nvalue = [0, 1]"] ;
157 -> 159 ;
160 [label="X[9] <= 0.415\ngini = 0.083\nsamples = 92\nvalue = [4, 88]"] ;
150 -> 160 ;
161 [label="X[4] <= 0.082\ngini = 0.5\nsamples = 4\nvalue = [2, 2]"] ;
160 -> 161 ;
162 [label="gini = 0.0\nsamples = 2\nvalue = [0, 2]"] ;
161 -> 162 ;
163 [label="gini = 0.0\nsamples = 2\nvalue = [2, 0]"] ;
161 -> 163 ;
164 [label="X[6] <= 0.418\ngini = 0.044\nsamples = 88\nvalue = [2, 86]"] ;
160 -> 164 ;
165 [label="gini = 0.0\nsamples = 62\nvalue = [0, 62]"] ;
164 -> 165 ;
166 [label="X[7] <= 0.582\ngini = 0.142\nsamples = 26\nvalue = [2, 24]"] ;
164 -> 166 ;
167 [label="X[4] <= 0.564\ngini = 0.1\nsamples = 19\nvalue = [1, 18]"] ;
166 -> 167 ;
168 [label="X[9] <= 0.707\ngini = 0.142\nsamples = 13\nvalue = [1, 12]"] ;
167 -> 168 ;
169 [label="gini = 0.0\nsamples = 10\nvalue = [0, 10]"] ;
168 -> 169 ;
170 [label="X[7] <= 0.294\ngini = 0.444\nsamples = 3\nvalue = [1, 2]"] ;
168 -> 170 ;
171 [label="gini = 0.0\nsamples = 2\nvalue = [0, 2]"] ;
170 -> 171 ;
172 [label="gini = 0.0\nsamples = 1\nvalue = [1, 0]"] ;
170 -> 172 ;
173 [label="gini = 0.0\nsamples = 6\nvalue = [0, 6]"] ;
167 -> 173 ;
174 [label="X[9] <= 0.639\ngini = 0.245\nsamples = 7\nvalue = [1, 6]"] ;
166 -> 174 ;
175 [label="X[9] <= 0.532\ngini = 0.444\nsamples = 3\nvalue = [1, 2]"] ;
174 -> 175 ;
176 [label="gini = 0.0\nsamples = 1\nvalue = [1, 0]"] ;
175 -> 176 ;
177 [label="gini = 0.0\nsamples = 2\nvalue = [0, 2]"] ;
175 -> 177 ;
178 [label="gini = 0.0\nsamples = 4\nvalue = [0, 4]"] ;
174 -> 178 ;
}