digraph Tree {
node [shape=box] ;
0 [label="X[8] <= 0.347\nentropy = 0.982\nsamples = 454\nvalue = [263, 191]"] ;
1 [label="X[2] <= 0.358\nentropy = 0.749\nsamples = 299\nvalue = [235, 64]"] ;
0 -> 1 [labeldistance=2.5, labelangle=45, headlabel="True"] ;
2 [label="X[2] <= 0.191\nentropy = 0.397\nsamples = 153\nvalue = [141, 12]"] ;
1 -> 2 ;
3 [label="X[1] <= 0.83\nentropy = 0.971\nsamples = 15\nvalue = [9, 6]"] ;
2 -> 3 ;
4 [label="entropy = 0.0\nsamples = 6\nvalue = [6, 0]"] ;
3 -> 4 ;
5 [label="X[6] <= 0.11\nentropy = 0.918\nsamples = 9\nvalue = [3, 6]"] ;
3 -> 5 ;
6 [label="X[3] <= 0.489\nentropy = 1.0\nsamples = 6\nvalue = [3, 3]"] ;
5 -> 6 ;
7 [label="entropy = 0.0\nsamples = 3\nvalue = [3, 0]"] ;
6 -> 7 ;
8 [label="entropy = 0.0\nsamples = 3\nvalue = [0, 3]"] ;
6 -> 8 ;
9 [label="entropy = 0.0\nsamples = 3\nvalue = [0, 3]"] ;
5 -> 9 ;
10 [label="X[4] <= 0.01\nentropy = 0.258\nsamples = 138\nvalue = [132, 6]"] ;
2 -> 10 ;
11 [label="entropy = 0.0\nsamples = 1\nvalue = [0, 1]"] ;
10 -> 11 ;
12 [label="X[9] <= 0.577\nentropy = 0.226\nsamples = 137\nvalue = [132, 5]"] ;
10 -> 12 ;
13 [label="X[3] <= 0.379\nentropy = 0.154\nsamples = 135\nvalue = [132, 3]"] ;
12 -> 13 ;
14 [label="X[0] <= 0.177\nentropy = 0.264\nsamples = 67\nvalue = [64, 3]"] ;
13 -> 14 ;
15 [label="X[7] <= 0.917\nentropy = 0.619\nsamples = 13\nvalue = [11, 2]"] ;
14 -> 15 ;
16 [label="X[1] <= 0.628\nentropy = 0.811\nsamples = 8\nvalue = [6, 2]"] ;
15 -> 16 ;
17 [label="entropy = 0.0\nsamples = 3\nvalue = [3, 0]"] ;
16 -> 17 ;
18 [label="X[7] <= 0.677\nentropy = 0.971\nsamples = 5\nvalue = [3, 2]"] ;
16 -> 18 ;
19 [label="entropy = 0.0\nsamples = 2\nvalue = [0, 2]"] ;
18 -> 19 ;
20 [label="entropy = 0.0\nsamples = 3\nvalue = [3, 0]"] ;
18 -> 20 ;
21 [label="entropy = 0.0\nsamples = 5\nvalue = [5, 0]"] ;
15 -> 21 ;
22 [label="X[9] <= 0.439\nentropy = 0.133\nsamples = 54\nvalue = [53, 1]"] ;
14 -> 22 ;
23 [label="entropy = 0.0\nsamples = 48\nvalue = [48, 0]"] ;
22 -> 23 ;
24 [label="X[7] <= 0.65\nentropy = 0.65\nsamples = 6\nvalue = [5, 1]"] ;
22 -> 24 ;
25 [label="entropy = 0.0\nsamples = 4\nvalue = [4, 0]"] ;
24 -> 25 ;
26 [label="X[4] <= 0.455\nentropy = 1.0\nsamples = 2\nvalue = [1, 1]"] ;
24 -> 26 ;
27 [label="entropy = 0.0\nsamples = 1\nvalue = [1, 0]"] ;
26 -> 27 ;
28 [label="entropy = 0.0\nsamples = 1\nvalue = [0, 1]"] ;
26 -> 28 ;
29 [label="entropy = 0.0\nsamples = 68\nvalue = [68, 0]"] ;
13 -> 29 ;
30 [label="entropy = 0.0\nsamples = 2\nvalue = [0, 2]"] ;
12 -> 30 ;
31 [label="X[9] <= 0.494\nentropy = 0.939\nsamples = 146\nvalue = [94, 52]"] ;
1 -> 31 ;
32 [label="X[4] <= 0.759\nentropy = 0.882\nsamples = 133\nvalue = [93, 40]"] ;
31 -> 32 ;
33 [label="X[5] <= 0.453\nentropy = 0.846\nsamples = 128\nvalue = [93, 35]"] ;
32 -> 33 ;
34 [label="X[2] <= 0.84\nentropy = 0.776\nsamples = 118\nvalue = [91, 27]"] ;
33 -> 34 ;
35 [label="X[3] <= 0.664\nentropy = 0.439\nsamples = 55\nvalue = [50, 5]"] ;
34 -> 35 ;
36 [label="X[0] <= 0.588\nentropy = 0.332\nsamples = 49\nvalue = [46, 3]"] ;
35 -> 36 ;
37 [label="X[7] <= 0.616\nentropy = 0.159\nsamples = 43\nvalue = [42, 1]"] ;
36 -> 37 ;
38 [label="entropy = 0.0\nsamples = 22\nvalue = [22, 0]"] ;
37 -> 38 ;
39 [label="X[3] <= 0.344\nentropy = 0.276\nsamples = 21\nvalue = [20, 1]"] ;
37 -> 39 ;
40 [label="X[4] <= 0.442\nentropy = 0.469\nsamples = 10\nvalue = [9, 1]"] ;
39 -> 40 ;
41 [label="X[4] <= 0.337\nentropy = 0.811\nsamples = 4\nvalue = [3, 1]"] ;
40 -> 41 ;
42 [label="entropy = 0.0\nsamples = 2\nvalue = [2, 0]"] ;
41 -> 42 ;
43 [label="X[7] <= 0.745\nentropy = 1.0\nsamples = 2\nvalue = [1, 1]"] ;
41 -> 43 ;
44 [label="entropy = 0.0\nsamples = 1\nvalue = [1, 0]"] ;
43 -> 44 ;
45 [label="entropy = 0.0\nsamples = 1\nvalue = [0, 1]"] ;
43 -> 45 ;
46 [label="entropy = 0.0\nsamples = 6\nvalue = [6, 0]"] ;
40 -> 46 ;
47 [label="entropy = 0.0\nsamples = 11\nvalue = [11, 0]"] ;
39 -> 47 ;
48 [label="X[6] <= 0.733\nentropy = 0.918\nsamples = 6\nvalue = [4, 2]"] ;
36 -> 48 ;
49 [label="entropy = 0.0\nsamples = 3\nvalue = [3, 0]"] ;
48 -> 49 ;
50 [label="X[0] <= 0.69\nentropy = 0.918\nsamples = 3\nvalue = [1, 2]"] ;
48 -> 50 ;
51 [label="entropy = 0.0\nsamples = 2\nvalue = [0, 2]"] ;
50 -> 51 ;
52 [label="entropy = 0.0\nsamples = 1\nvalue = [1, 0]"] ;
50 -> 52 ;
53 [label="X[1] <= 0.062\nentropy = 0.918\nsamples = 6\nvalue = [4, 2]"] ;
35 -> 53 ;
54 [label="entropy = 0.0\nsamples = 2\nvalue = [0, 2]"] ;
53 -> 54 ;
55 [label="entropy = 0.0\nsamples = 4\nvalue = [4, 0]"] ;
53 -> 55 ;
56 [label="X[4] <= 0.067\nentropy = 0.933\nsamples = 63\nvalue = [41, 22]"] ;
34 -> 56 ;
57 [label="entropy = 0.0\nsamples = 4\nvalue = [0, 4]"] ;
56 -> 57 ;
58 [label="X[6] <= 0.664\nentropy = 0.887\nsamples = 59\nvalue = [41, 18]"] ;
56 -> 58 ;
59 [label="X[1] <= 0.885\nentropy = 0.949\nsamples = 49\nvalue = [31, 18]"] ;
58 -> 59 ;
60 [label="entropy = 0.0\nsamples = 5\nvalue = [5, 0]"] ;
59 -> 60 ;
61 [label="X[4] <= 0.57\nentropy = 0.976\nsamples = 44\nvalue = [26, 18]"] ;
59 -> 61 ;
62 [label="X[7] <= 0.388\nentropy = 0.993\nsamples = 40\nvalue = [22, 18]"] ;
61 -> 62 ;
63 [label="entropy = 0.0\nsamples = 3\nvalue = [3, 0]"] ;
62 -> 63 ;
64 [label="X[9] <= 0.41\nentropy = 0.999\nsamples = 37\nvalue = [19, 18]"] ;
62 -> 64 ;
65 [label="X[3] <= 0.535\nentropy = 0.995\nsamples = 35\nvalue = [19, 16]"] ;
64 -> 65 ;
66 [label="X[4] <= 0.366\nentropy = 0.974\nsamples = 32\nvalue = [19, 13]"] ;
65 -> 66 ;
67 [label="X[4] <= 0.168\nentropy = 0.89\nsamples = 13\nvalue = [4, 9]"] ;
66 -> 67 ;
68 [label="entropy = 0.0\nsamples = 1\nvalue = [1, 0]"] ;
67 -> 68 ;
69 [label="X[4] <= 0.23\nentropy = 0.811\nsamples = 12\nvalue = [3, 9]"] ;
67 -> 69 ;
70 [label="entropy = 0.0\nsamples = 2\nvalue = [2, 0]"] ;
69 -> 70 ;
71 [label="X[4] <= 0.313\nentropy = 0.469\nsamples = 10\nvalue = [1, 9]"] ;
69 -> 71 ;
72 [label="X[3] <= 0.389\nentropy = 0.811\nsamples = 4\nvalue = [1, 3]"] ;
71 -> 72 ;
73 [label="entropy = 0.0\nsamples = 3\nvalue = [0, 3]"] ;
72 -> 73 ;
74 [label="entropy = 0.0\nsamples = 1\nvalue = [1, 0]"] ;
72 -> 74 ;
75 [label="entropy = 0.0\nsamples = 6\nvalue = [0, 6]"] ;
71 -> 75 ;
76 [label="X[7] <= 0.521\nentropy = 0.742\nsamples = 19\nvalue = [15, 4]"] ;
66 -> 76 ;
77 [label="entropy = 0.0\nsamples = 1\nvalue = [0, 1]"] ;
76 -> 77 ;
78 [label="X[7] <= 0.842\nentropy = 0.65\nsamples = 18\nvalue = [15, 3]"] ;
76 -> 78 ;
79 [label="entropy = 0.0\nsamples = 15\nvalue = [15, 0]"] ;
78 -> 79 ;
80 [label="entropy = 0.0\nsamples = 3\nvalue = [0, 3]"] ;
78 -> 80 ;
81 [label="entropy = 0.0\nsamples = 3\nvalue = [0, 3]"] ;
65 -> 81 ;
82 [label="entropy = 0.0\nsamples = 2\nvalue = [0, 2]"] ;
64 -> 82 ;
83 [label="entropy = 0.0\nsamples = 4\nvalue = [4, 0]"] ;
61 -> 83 ;
84 [label="entropy = 0.0\nsamples = 10\nvalue = [10, 0]"] ;
58 -> 84 ;
85 [label="X[0] <= 0.25\nentropy = 0.722\nsamples = 10\nvalue = [2, 8]"] ;
33 -> 85 ;
86 [label="entropy = 0.0\nsamples = 2\nvalue = [2, 0]"] ;
85 -> 86 ;
87 [label="entropy = 0.0\nsamples = 8\nvalue = [0, 8]"] ;
85 -> 87 ;
88 [label="entropy = 0.0\nsamples = 5\nvalue = [0, 5]"] ;
32 -> 88 ;
89 [label="X[7] <= 0.693\nentropy = 0.391\nsamples = 13\nvalue = [1, 12]"] ;
31 -> 89 ;
90 [label="entropy = 0.0\nsamples = 12\nvalue = [0, 12]"] ;
89 -> 90 ;
91 [label="entropy = 0.0\nsamples = 1\nvalue = [1, 0]"] ;
89 -> 91 ;
92 [label="X[1] <= 0.793\nentropy = 0.681\nsamples = 155\nvalue = [28, 127]"] ;
0 -> 92 [labeldistance=2.5, labelangle=-45, headlabel="False"] ;
93 [label="X[4] <= 0.598\nentropy = 0.98\nsamples = 24\nvalue = [10, 14]"] ;
92 -> 93 ;
94 [label="X[7] <= 0.312\nentropy = 0.994\nsamples = 22\nvalue = [10, 12]"] ;
93 -> 94 ;
95 [label="entropy = 0.0\nsamples = 3\nvalue = [0, 3]"] ;
94 -> 95 ;
96 [label="X[9] <= 0.561\nentropy = 0.998\nsamples = 19\nvalue = [10, 9]"] ;
94 -> 96 ;
97 [label="X[5] <= 0.974\nentropy = 0.989\nsamples = 16\nvalue = [7, 9]"] ;
96 -> 97 ;
98 [label="X[0] <= 0.28\nentropy = 1.0\nsamples = 14\nvalue = [7, 7]"] ;
97 -> 98 ;
99 [label="entropy = 0.0\nsamples = 2\nvalue = [0, 2]"] ;
98 -> 99 ;
100 [label="X[7] <= 0.653\nentropy = 0.98\nsamples = 12\nvalue = [7, 5]"] ;
98 -> 100 ;
101 [label="X[2] <= 0.932\nentropy = 0.881\nsamples = 10\nvalue = [7, 3]"] ;
100 -> 101 ;
102 [label="entropy = 0.0\nsamples = 1\nvalue = [0, 1]"] ;
101 -> 102 ;
103 [label="X[4] <= 0.49\nentropy = 0.764\nsamples = 9\nvalue = [7, 2]"] ;
101 -> 103 ;
104 [label="X[0] <= 0.738\nentropy = 0.918\nsamples = 6\nvalue = [4, 2]"] ;
103 -> 104 ;
105 [label="X[9] <= 0.501\nentropy = 0.722\nsamples = 5\nvalue = [4, 1]"] ;
104 -> 105 ;
106 [label="entropy = 0.0\nsamples = 2\nvalue = [2, 0]"] ;
105 -> 106 ;
107 [label="X[4] <= 0.327\nentropy = 0.918\nsamples = 3\nvalue = [2, 1]"] ;
105 -> 107 ;
108 [label="entropy = 0.0\nsamples = 2\nvalue = [2, 0]"] ;
107 -> 108 ;
109 [label="entropy = 0.0\nsamples = 1\nvalue = [0, 1]"] ;
107 -> 109 ;
110 [label="entropy = 0.0\nsamples = 1\nvalue = [0, 1]"] ;
104 -> 110 ;
111 [label="entropy = 0.0\nsamples = 3\nvalue = [3, 0]"] ;
103 -> 111 ;
112 [label="entropy = 0.0\nsamples = 2\nvalue = [0, 2]"] ;
100 -> 112 ;
113 [label="entropy = 0.0\nsamples = 2\nvalue = [0, 2]"] ;
97 -> 113 ;
114 [label="entropy = 0.0\nsamples = 3\nvalue = [3, 0]"] ;
96 -> 114 ;
115 [label="entropy = 0.0\nsamples = 2\nvalue = [0, 2]"] ;
93 -> 115 ;
116 [label="X[3] <= 0.595\nentropy = 0.577\nsamples = 131\nvalue = [18, 113]"] ;
92 -> 116 ;
117 [label="X[2] <= 0.67\nentropy = 0.654\nsamples = 107\nvalue = [18, 89]"] ;
116 -> 117 ;
118 [label="X[6] <= 0.721\nentropy = 0.998\nsamples = 19\nvalue = [10, 9]"] ;
117 -> 118 ;
119 [label="X[3] <= 0.566\nentropy = 0.954\nsamples = 16\nvalue = [10, 6]"] ;
118 -> 119 ;
120 [label="X[2] <= 0.581\nentropy = 0.863\nsamples = 14\nvalue = [10, 4]"] ;
119 -> 120 ;
121 [label="entropy = 0.0\nsamples = 5\nvalue = [5, 0]"] ;
120 -> 121 ;
122 [label="X[0] <= 0.587\nentropy = 0.991\nsamples = 9\nvalue = [5, 4]"] ;
120 -> 122 ;
123 [label="X[0] <= 0.418\nentropy = 0.918\nsamples = 6\nvalue = [2, 4]"] ;
122 -> 123 ;
124 [label="X[4] <= 0.321\nentropy = 1.0\nsamples = 4\nvalue = [2, 2]"] ;
123 -> 124 ;
125 [label="entropy = 0.0\nsamples = 2\nvalue = [0, 2]"] ;
124 -> 125 ;
126 [label="entropy = 0.0\nsamples = 2\nvalue = [2, 0]"] ;
124 -> 126 ;
127 [label="entropy = 0.0\nsamples = 2\nvalue = [0, 2]"] ;
123 -> 127 ;
128 [label="entropy = 0.0\nsamples = 3\nvalue = [3, 0]"] ;
122 -> 128 ;
129 [label="entropy = 0.0\nsamples = 2\nvalue = [0, 2]"] ;
119 -> 129 ;
130 [label="entropy = 0.0\nsamples = 3\nvalue = [0, 3]"] ;
118 -> 130 ;
131 [label="X[9] <= 0.418\nentropy = 0.439\nsamples = 88\nvalue = [8, 80]"] ;
117 -> 131 ;
132 [label="X[3] <= 0.473\nentropy = 0.881\nsamples = 20\nvalue = [6, 14]"] ;
131 -> 132 ;
133 [label="X[6] <= 0.459\nentropy = 0.414\nsamples = 12\nvalue = [1, 11]"] ;
132 -> 133 ;
134 [label="entropy = 0.0\nsamples = 8\nvalue = [0, 8]"] ;
133 -> 134 ;
135 [label="X[4] <= 0.429\nentropy = 0.811\nsamples = 4\nvalue = [1, 3]"] ;
133 -> 135 ;
136 [label="entropy = 0.0\nsamples = 3\nvalue = [0, 3]"] ;
135 -> 136 ;
137 [label="entropy = 0.0\nsamples = 1\nvalue = [1, 0]"] ;
135 -> 137 ;
138 [label="X[4] <= 0.16\nentropy = 0.954\nsamples = 8\nvalue = [5, 3]"] ;
132 -> 138 ;
139 [label="entropy = 0.0\nsamples = 2\nvalue = [0, 2]"] ;
138 -> 139 ;
140 [label="X[6] <= 0.179\nentropy = 0.65\nsamples = 6\nvalue = [5, 1]"] ;
138 -> 140 ;
141 [label="entropy = 0.0\nsamples = 5\nvalue = [5, 0]"] ;
140 -> 141 ;
142 [label="entropy = 0.0\nsamples = 1\nvalue = [0, 1]"] ;
140 -> 142 ;
143 [label="X[3] <= 0.541\nentropy = 0.191\nsamples = 68\nvalue = [2, 66]"] ;
131 -> 143 ;
144 [label="X[6] <= 0.132\nentropy = 0.216\nsamples = 58\nvalue = [2, 56]"] ;
143 -> 144 ;
145 [label="entropy = 0.0\nsamples = 42\nvalue = [0, 42]"] ;
144 -> 145 ;
146 [label="X[3] <= 0.299\nentropy = 0.544\nsamples = 16\nvalue = [2, 14]"] ;
144 -> 146 ;
147 [label="X[0] <= 0.403\nentropy = 0.918\nsamples = 3\nvalue = [1, 2]"] ;
146 -> 147 ;
148 [label="entropy = 0.0\nsamples = 1\nvalue = [1, 0]"] ;
147 -> 148 ;
149 [label="entropy = 0.0\nsamples = 2\nvalue = [0, 2]"] ;
147 -> 149 ;
150 [label="X[9] <= 0.723\nentropy = 0.391\nsamples = 13\nvalue = [1, 12]"] ;
146 -> 150 ;
151 [label="entropy = 0.0\nsamples = 10\nvalue = [0, 10]"] ;
150 -> 151 ;
152 [label="X[9] <= 0.748\nentropy = 0.918\nsamples = 3\nvalue = [1, 2]"] ;
150 -> 152 ;
153 [label="entropy = 0.0\nsamples = 1\nvalue = [1, 0]"] ;
152 -> 153 ;
154 [label="entropy = 0.0\nsamples = 2\nvalue = [0, 2]"] ;
152 -> 154 ;
155 [label="entropy = 0.0\nsamples = 10\nvalue = [0, 10]"] ;
143 -> 155 ;
156 [label="entropy = 0.0\nsamples = 24\nvalue = [0, 24]"] ;
116 -> 156 ;
}
